<?xml version="1.0"?>
<opencv_storage>
<cascade>
  <stageType>BOOST</stageType>
  <featureType>HAAR</featureType>
  <height>24</height>
  <width>32</width>
  <stageParams>
    <boostType>GAB</boostType>
    <minHitRate>9.9500000476837158e-01</minHitRate>
    <maxFalseAlarm>5.0000000000000000e-01</maxFalseAlarm>
    <weightTrimRate>9.4999998807907104e-01</weightTrimRate>
    <maxDepth>1</maxDepth>
    <maxWeakCount>100</maxWeakCount></stageParams>
  <featureParams>
    <maxCatCount>0</maxCatCount>
    <featSize>1</featSize>
    <mode>BASIC</mode></featureParams>
  <stageNum>16</stageNum>
  <stages>
    <!-- stage 0 -->
    <_>
      <maxWeakCount>3</maxWeakCount>
      <stageThreshold>-1.4301671981811523e+00</stageThreshold>
      <weakClassifiers>
        <_>
          <internalNodes>
            0 -1 22 -2.2377127408981323e-01</internalNodes>
          <leafValues>
            5.5140185356140137e-01 -9.6774190664291382e-01</leafValues></_>
        <_>
          <internalNodes>
            0 -1 40 1.7688322812318802e-02</internalNodes>
          <leafValues>
            -9.1110306978225708e-01 6.6366863250732422e-01</leafValues></_>
        <_>
          <internalNodes>
            0 -1 47 1.0221440345048904e-02</internalNodes>
          <leafValues>
            -1. 4.4867786765098572e-01</leafValues></_></weakClassifiers></_>
    <!-- stage 1 -->
    <_>
      <maxWeakCount>3</maxWeakCount>
      <stageThreshold>-1.3108662366867065e+00</stageThreshold>
      <weakClassifiers>
        <_>
          <internalNodes>
            0 -1 14 -1.9510507583618164e-01</internalNodes>
          <leafValues>
            7.7777779102325439e-01 -9.1698843240737915e-01</leafValues></_>
        <_>
          <internalNodes>
            0 -1 36 -3.1527411937713623e-01</internalNodes>
          <leafValues>
            8.8346308469772339e-01 -8.3550858497619629e-01</leafValues></_>
        <_>
          <internalNodes>
            0 -1 2 4.5837138895876706e-04</internalNodes>
          <leafValues>
            -1. 4.4163075089454651e-01</leafValues></_></weakClassifiers></_>
    <!-- stage 2 -->
    <_>
      <maxWeakCount>3</maxWeakCount>
      <stageThreshold>-1.1484432220458984e+00</stageThreshold>
      <weakClassifiers>
        <_>
          <internalNodes>
            0 -1 19 -5.7678416371345520e-02</internalNodes>
          <leafValues>
            6.1538463830947876e-01 -8.9111745357513428e-01</leafValues></_>
        <_>
          <internalNodes>
            0 -1 11 1.3177327811717987e-01</internalNodes>
          <leafValues>
            -6.5194380283355713e-01 8.2704454660415649e-01</leafValues></_>
        <_>
          <internalNodes>
            0 -1 4 -2.2999437153339386e-01</internalNodes>
          <leafValues>
            3.9461803436279297e-01 -1.</leafValues></_></weakClassifiers></_>
    <!-- stage 3 -->
    <_>
      <maxWeakCount>5</maxWeakCount>
      <stageThreshold>-1.5355932712554932e+00</stageThreshold>
      <weakClassifiers>
        <_>
          <internalNodes>
            0 -1 6 5.7742461562156677e-02</internalNodes>
          <leafValues>
            -8.8090735673904419e-01 7.5609755516052246e-01</leafValues></_>
        <_>
          <internalNodes>
            0 -1 18 2.0230771973729134e-02</internalNodes>
          <leafValues>
            -7.2506690025329590e-01 6.7913573980331421e-01</leafValues></_>
        <_>
          <internalNodes>
            0 -1 50 -2.2167856805026531e-03</internalNodes>
          <leafValues>
            4.1862383484840393e-01 -8.1575059890747070e-01</leafValues></_>
        <_>
          <internalNodes>
            0 -1 33 -8.8094823062419891e-02</internalNodes>
          <leafValues>
            5.1651132106781006e-01 -7.2417414188385010e-01</leafValues></_>
        <_>
          <internalNodes>
            0 -1 55 2.8550694696605206e-04</internalNodes>
          <leafValues>
            -9.7631049156188965e-01 3.7593135237693787e-01</leafValues></_></weakClassifiers></_>
    <!-- stage 4 -->
    <_>
      <maxWeakCount>4</maxWeakCount>
      <stageThreshold>-1.9597319364547729e+00</stageThreshold>
      <weakClassifiers>
        <_>
          <internalNodes>
            0 -1 5 -9.5573570579290390e-03</internalNodes>
          <leafValues>
            5.9183675050735474e-01 -8.8571429252624512e-01</leafValues></_>
        <_>
          <internalNodes>
            0 -1 9 -3.3543735742568970e-02</internalNodes>
          <leafValues>
            5.9322184324264526e-01 -7.8412288427352905e-01</leafValues></_>
        <_>
          <internalNodes>
            0 -1 45 1.1233158875256777e-03</internalNodes>
          <leafValues>
            -8.6286109685897827e-01 4.0033957362174988e-01</leafValues></_>
        <_>
          <internalNodes>
            0 -1 34 -6.4200307242572308e-03</internalNodes>
          <leafValues>
            5.7296633720397949e-01 -6.1055165529251099e-01</leafValues></_></weakClassifiers></_>
    <!-- stage 5 -->
    <_>
      <maxWeakCount>4</maxWeakCount>
      <stageThreshold>-1.5744838714599609e+00</stageThreshold>
      <weakClassifiers>
        <_>
          <internalNodes>
            0 -1 15 -5.3606949746608734e-02</internalNodes>
          <leafValues>
            7.2972971200942993e-01 -8.7382298707962036e-01</leafValues></_>
        <_>
          <internalNodes>
            0 -1 28 5.5158548057079315e-02</internalNodes>
          <leafValues>
            -7.2692972421646118e-01 6.3632220029830933e-01</leafValues></_>
        <_>
          <internalNodes>
            0 -1 23 -2.8822585009038448e-03</internalNodes>
          <leafValues>
            5.2866387367248535e-01 -6.3860100507736206e-01</leafValues></_>
        <_>
          <internalNodes>
            0 -1 37 -5.1185828633606434e-03</internalNodes>
          <leafValues>
            7.1879565715789795e-01 -5.0239509344100952e-01</leafValues></_></weakClassifiers></_>
    <!-- stage 6 -->
    <_>
      <maxWeakCount>3</maxWeakCount>
      <stageThreshold>-1.4366126060485840e+00</stageThreshold>
      <weakClassifiers>
        <_>
          <internalNodes>
            0 -1 12 -6.3810175657272339e-01</internalNodes>
          <leafValues>
            6.8888890743255615e-01 -8.8425046205520630e-01</leafValues></_>
        <_>
          <internalNodes>
            0 -1 31 -2.8675147891044617e-01</internalNodes>
          <leafValues>
            6.4395529031753540e-01 -7.9028254747390747e-01</leafValues></_>
        <_>
          <internalNodes>
            0 -1 53 -2.6098234229721129e-04</internalNodes>
          <leafValues>
            -9.6393066644668579e-01 2.3792034387588501e-01</leafValues></_></weakClassifiers></_>
    <!-- stage 7 -->
    <_>
      <maxWeakCount>5</maxWeakCount>
      <stageThreshold>-1.7437614202499390e+00</stageThreshold>
      <weakClassifiers>
        <_>
          <internalNodes>
            0 -1 13 -5.0985133647918701e-01</internalNodes>
          <leafValues>
            6.1702126264572144e-01 -8.8403040170669556e-01</leafValues></_>
        <_>
          <internalNodes>
            0 -1 26 -3.5672909021377563e-01</internalNodes>
          <leafValues>
            5.0240635871887207e-01 -7.5333088636398315e-01</leafValues></_>
        <_>
          <internalNodes>
            0 -1 38 2.0916596986353397e-03</internalNodes>
          <leafValues>
            -7.7894341945648193e-01 4.9845999479293823e-01</leafValues></_>
        <_>
          <internalNodes>
            0 -1 54 3.9815166965126991e-03</internalNodes>
          <leafValues>
            3.7594792246818542e-01 -9.1840976476669312e-01</leafValues></_>
        <_>
          <internalNodes>
            0 -1 52 -4.3175692553631961e-04</internalNodes>
          <leafValues>
            -9.6571207046508789e-01 3.1354972720146179e-01</leafValues></_></weakClassifiers></_>
    <!-- stage 8 -->
    <_>
      <maxWeakCount>5</maxWeakCount>
      <stageThreshold>-1.7662382125854492e+00</stageThreshold>
      <weakClassifiers>
        <_>
          <internalNodes>
            0 -1 17 -1.0613702237606049e-01</internalNodes>
          <leafValues>
            5.4545456171035767e-01 -8.7677723169326782e-01</leafValues></_>
        <_>
          <internalNodes>
            0 -1 20 -3.1690222024917603e-01</internalNodes>
          <leafValues>
            5.3858107328414917e-01 -7.6950347423553467e-01</leafValues></_>
        <_>
          <internalNodes>
            0 -1 58 1.1289344911347143e-05</internalNodes>
          <leafValues>
            -9.2686808109283447e-01 2.2010858356952667e-01</leafValues></_>
        <_>
          <internalNodes>
            0 -1 1 6.8118283525109291e-03</internalNodes>
          <leafValues>
            -7.0916366577148438e-01 4.3973183631896973e-01</leafValues></_>
        <_>
          <internalNodes>
            0 -1 39 1.4388550072908401e-02</internalNodes>
          <leafValues>
            -7.7979797124862671e-01 4.5381435751914978e-01</leafValues></_></weakClassifiers></_>
    <!-- stage 9 -->
    <_>
      <maxWeakCount>3</maxWeakCount>
      <stageThreshold>-1.1591131687164307e+00</stageThreshold>
      <weakClassifiers>
        <_>
          <internalNodes>
            0 -1 8 -1.6713353991508484e-01</internalNodes>
          <leafValues>
            6.4285713434219360e-01 -8.5807657241821289e-01</leafValues></_>
        <_>
          <internalNodes>
            0 -1 35 -2.7534721884876490e-03</internalNodes>
          <leafValues>
            5.5949002504348755e-01 -6.4149522781372070e-01</leafValues></_>
        <_>
          <internalNodes>
            0 -1 51 4.7265053726732731e-03</internalNodes>
          <leafValues>
            -8.6052662134170532e-01 3.4473127126693726e-01</leafValues></_></weakClassifiers></_>
    <!-- stage 10 -->
    <_>
      <maxWeakCount>4</maxWeakCount>
      <stageThreshold>-1.3471834659576416e+00</stageThreshold>
      <weakClassifiers>
        <_>
          <internalNodes>
            0 -1 29 -3.9858199656009674e-02</internalNodes>
          <leafValues>
            8.5185188055038452e-01 -8.6194032430648804e-01</leafValues></_>
        <_>
          <internalNodes>
            0 -1 42 -4.7587156295776367e-02</internalNodes>
          <leafValues>
            2.3784017562866211e-01 -7.4497783184051514e-01</leafValues></_>
        <_>
          <internalNodes>
            0 -1 61 -1.8819990509655327e-04</internalNodes>
          <leafValues>
            -9.5943689346313477e-01 2.1637703478336334e-01</leafValues></_>
        <_>
          <internalNodes>
            0 -1 27 1.3415912690106779e-04</internalNodes>
          <leafValues>
            2.3635350167751312e-01 -9.1174250841140747e-01</leafValues></_></weakClassifiers></_>
    <!-- stage 11 -->
    <_>
      <maxWeakCount>3</maxWeakCount>
      <stageThreshold>-1.2767254114151001e+00</stageThreshold>
      <weakClassifiers>
        <_>
          <internalNodes>
            0 -1 10 -3.9661370217800140e-02</internalNodes>
          <leafValues>
            5.3846156597137451e-01 -8.6981129646301270e-01</leafValues></_>
        <_>
          <internalNodes>
            0 -1 7 -4.4710689783096313e-01</internalNodes>
          <leafValues>
            4.7540178894996643e-01 -6.4126241207122803e-01</leafValues></_>
        <_>
          <internalNodes>
            0 -1 3 1.1289344911347143e-05</internalNodes>
          <leafValues>
            -8.8231593370437622e-01 2.9969060420989990e-01</leafValues></_></weakClassifiers></_>
    <!-- stage 12 -->
    <_>
      <maxWeakCount>4</maxWeakCount>
      <stageThreshold>-1.0898327827453613e+00</stageThreshold>
      <weakClassifiers>
        <_>
          <internalNodes>
            0 -1 21 -4.0247227996587753e-02</internalNodes>
          <leafValues>
            6.6666668653488159e-01 -8.6155283451080322e-01</leafValues></_>
        <_>
          <internalNodes>
            0 -1 46 -4.7017615288496017e-03</internalNodes>
          <leafValues>
            4.6195867657661438e-01 -6.4122766256332397e-01</leafValues></_>
        <_>
          <internalNodes>
            0 -1 61 2.3134457296691835e-04</internalNodes>
          <leafValues>
            2.5116169452667236e-01 -9.2164325714111328e-01</leafValues></_>
        <_>
          <internalNodes>
            0 -1 41 -1.2468195054680109e-03</internalNodes>
          <leafValues>
            2.3140469193458557e-01 -8.8992357254028320e-01</leafValues></_></weakClassifiers></_>
    <!-- stage 13 -->
    <_>
      <maxWeakCount>4</maxWeakCount>
      <stageThreshold>-1.8595882654190063e+00</stageThreshold>
      <weakClassifiers>
        <_>
          <internalNodes>
            0 -1 25 -2.4486199021339417e-01</internalNodes>
          <leafValues>
            8.3333331346511841e-01 -8.5674417018890381e-01</leafValues></_>
        <_>
          <internalNodes>
            0 -1 48 -7.4277110397815704e-03</internalNodes>
          <leafValues>
            2.1682043373584747e-01 -8.2453840970993042e-01</leafValues></_>
        <_>
          <internalNodes>
            0 -1 49 7.2097033262252808e-04</internalNodes>
          <leafValues>
            -6.4529448747634888e-01 4.5723462104797363e-01</leafValues></_>
        <_>
          <internalNodes>
            0 -1 0 6.7501137964427471e-03</internalNodes>
          <leafValues>
            -6.3554030656814575e-01 4.8441994190216064e-01</leafValues></_></weakClassifiers></_>
    <!-- stage 14 -->
    <_>
      <maxWeakCount>4</maxWeakCount>
      <stageThreshold>-1.6585232019424438e+00</stageThreshold>
      <weakClassifiers>
        <_>
          <internalNodes>
            0 -1 24 -3.8171485066413879e-02</internalNodes>
          <leafValues>
            7.2222220897674561e-01 -8.7206017971038818e-01</leafValues></_>
        <_>
          <internalNodes>
            0 -1 44 -1.4208169654011726e-02</internalNodes>
          <leafValues>
            4.2372947931289673e-01 -7.9029232263565063e-01</leafValues></_>
        <_>
          <internalNodes>
            0 -1 32 -1.8719609826803207e-02</internalNodes>
          <leafValues>
            6.7926275730133057e-01 -5.3606182336807251e-01</leafValues></_>
        <_>
          <internalNodes>
            0 -1 30 -3.2772180438041687e-01</internalNodes>
          <leafValues>
            5.3989112377166748e-01 -6.1084151268005371e-01</leafValues></_></weakClassifiers></_>
    <!-- stage 15 -->
    <_>
      <maxWeakCount>6</maxWeakCount>
      <stageThreshold>-1.6393188238143921e+00</stageThreshold>
      <weakClassifiers>
        <_>
          <internalNodes>
            0 -1 16 -2.5035342574119568e-01</internalNodes>
          <leafValues>
            6.9230771064758301e-01 -8.7547171115875244e-01</leafValues></_>
        <_>
          <internalNodes>
            0 -1 43 -5.5491747334599495e-03</internalNodes>
          <leafValues>
            5.2462810277938843e-01 -7.0484977960586548e-01</leafValues></_>
        <_>
          <internalNodes>
            0 -1 57 1.1257203368586488e-05</internalNodes>
          <leafValues>
            -9.2227250337600708e-01 2.3941440880298615e-01</leafValues></_>
        <_>
          <internalNodes>
            0 -1 56 3.3426837762817740e-04</internalNodes>
          <leafValues>
            3.3332595229148865e-01 -9.0334951877593994e-01</leafValues></_>
        <_>
          <internalNodes>
            0 -1 59 4.6656391350552440e-04</internalNodes>
          <leafValues>
            -7.6772290468215942e-01 3.2041341066360474e-01</leafValues></_>
        <_>
          <internalNodes>
            0 -1 60 5.3845404181629419e-04</internalNodes>
          <leafValues>
            2.8452435135841370e-01 -1.</leafValues></_></weakClassifiers></_></stages>
  <features>
    <_>
      <rects>
        <_>
          0 0 1 16 -1.</_>
        <_>
          0 8 1 8 2.</_></rects>
      <tilted>0</tilted></_>
    <_>
      <rects>
        <_>
          0 0 1 18 -1.</_>
        <_>
          0 9 1 9 2.</_></rects>
      <tilted>0</tilted></_>
    <_>
      <rects>
        <_>
          0 0 2 23 -1.</_>
        <_>
          1 0 1 23 2.</_></rects>
      <tilted>0</tilted></_>
    <_>
      <rects>
        <_>
          0 1 3 3 -1.</_>
        <_>
          1 1 1 3 3.</_></rects>
      <tilted>0</tilted></_>
    <_>
      <rects>
        <_>
          0 1 26 21 -1.</_>
        <_>
          13 1 13 21 2.</_></rects>
      <tilted>0</tilted></_>
    <_>
      <rects>
        <_>
          0 1 16 4 -1.</_>
        <_>
          0 3 16 2 2.</_></rects>
      <tilted>0</tilted></_>
    <_>
      <rects>
        <_>
          0 4 11 8 -1.</_>
        <_>
          0 8 11 4 2.</_></rects>
      <tilted>0</tilted></_>
    <_>
      <rects>
        <_>
          0 4 22 16 -1.</_>
        <_>
          11 4 11 16 2.</_></rects>
      <tilted>0</tilted></_>
    <_>
      <rects>
        <_>
          0 12 27 3 -1.</_>
        <_>
          9 12 9 3 3.</_></rects>
      <tilted>0</tilted></_>
    <_>
      <rects>
        <_>
          1 0 20 8 -1.</_>
        <_>
          1 0 10 4 2.</_>
        <_>
          11 4 10 4 2.</_></rects>
      <tilted>0</tilted></_>
    <_>
      <rects>
        <_>
          1 1 8 9 -1.</_>
        <_>
          1 4 8 3 3.</_></rects>
      <tilted>0</tilted></_>
    <_>
      <rects>
        <_>
          1 3 31 8 -1.</_>
        <_>
          1 7 31 4 2.</_></rects>
      <tilted>0</tilted></_>
    <_>
      <rects>
        <_>
          1 6 27 16 -1.</_>
        <_>
          10 6 9 16 3.</_></rects>
      <tilted>0</tilted></_>
    <_>
      <rects>
        <_>
          1 8 27 12 -1.</_>
        <_>
          10 8 9 12 3.</_></rects>
      <tilted>0</tilted></_>
    <_>
      <rects>
        <_>
          1 12 30 4 -1.</_>
        <_>
          11 12 10 4 3.</_></rects>
      <tilted>0</tilted></_>
    <_>
      <rects>
        <_>
          1 13 27 1 -1.</_>
        <_>
          10 13 9 1 3.</_></rects>
      <tilted>0</tilted></_>
    <_>
      <rects>
        <_>
          1 13 27 5 -1.</_>
        <_>
          10 13 9 5 3.</_></rects>
      <tilted>0</tilted></_>
    <_>
      <rects>
        <_>
          1 14 27 2 -1.</_>
        <_>
          10 14 9 2 3.</_></rects>
      <tilted>0</tilted></_>
    <_>
      <rects>
        <_>
          2 1 26 4 -1.</_>
        <_>
          2 3 26 2 2.</_></rects>
      <tilted>0</tilted></_>
    <_>
      <rects>
        <_>
          2 15 30 1 -1.</_>
        <_>
          12 15 10 1 3.</_></rects>
      <tilted>0</tilted></_>
    <_>
      <rects>
        <_>
          3 9 20 13 -1.</_>
        <_>
          13 9 10 13 2.</_></rects>
      <tilted>0</tilted></_>
    <_>
      <rects>
        <_>
          3 14 21 1 -1.</_>
        <_>
          10 14 7 1 3.</_></rects>
      <tilted>0</tilted></_>
    <_>
      <rects>
        <_>
          4 12 27 7 -1.</_>
        <_>
          13 12 9 7 3.</_></rects>
      <tilted>0</tilted></_>
    <_>
      <rects>
        <_>
          4 12 11 6 -1.</_>
        <_>
          4 14 11 2 3.</_></rects>
      <tilted>0</tilted></_>
    <_>
      <rects>
        <_>
          4 15 21 1 -1.</_>
        <_>
          11 15 7 1 3.</_></rects>
      <tilted>0</tilted></_>
    <_>
      <rects>
        <_>
          5 5 10 18 -1.</_>
        <_>
          10 5 5 18 2.</_></rects>
      <tilted>0</tilted></_>
    <_>
      <rects>
        <_>
          5 11 27 8 -1.</_>
        <_>
          14 11 9 8 3.</_></rects>
      <tilted>0</tilted></_>
    <_>
      <rects>
        <_>
          5 13 3 2 -1.</_>
        <_>
          6 13 1 2 3.</_></rects>
      <tilted>0</tilted></_>
    <_>
      <rects>
        <_>
          5 15 12 9 -1.</_>
        <_>
          9 15 4 9 3.</_></rects>
      <tilted>0</tilted></_>
    <_>
      <rects>
        <_>
          6 12 6 5 -1.</_>
        <_>
          9 12 3 5 2.</_></rects>
      <tilted>0</tilted></_>
    <_>
      <rects>
        <_>
          7 8 21 14 -1.</_>
        <_>
          14 8 7 14 3.</_></rects>
      <tilted>0</tilted></_>
    <_>
      <rects>
        <_>
          7 13 24 8 -1.</_>
        <_>
          15 13 8 8 3.</_></rects>
      <tilted>0</tilted></_>
    <_>
      <rects>
        <_>
          9 7 14 9 -1.</_>
        <_>
          9 10 14 3 3.</_></rects>
      <tilted>0</tilted></_>
    <_>
      <rects>
        <_>
          10 2 12 20 -1.</_>
        <_>
          14 2 4 20 3.</_></rects>
      <tilted>0</tilted></_>
    <_>
      <rects>
        <_>
          10 11 17 6 -1.</_>
        <_>
          10 13 17 2 3.</_></rects>
      <tilted>0</tilted></_>
    <_>
      <rects>
        <_>
          11 8 11 3 -1.</_>
        <_>
          11 9 11 1 3.</_></rects>
      <tilted>0</tilted></_>
    <_>
      <rects>
        <_>
          12 2 18 22 -1.</_>
        <_>
          18 2 6 22 3.</_></rects>
      <tilted>0</tilted></_>
    <_>
      <rects>
        <_>
          12 4 11 6 -1.</_>
        <_>
          12 6 11 2 3.</_></rects>
      <tilted>0</tilted></_>
    <_>
      <rects>
        <_>
          13 22 10 2 -1.</_>
        <_>
          13 23 10 1 2.</_></rects>
      <tilted>0</tilted></_>
    <_>
      <rects>
        <_>
          14 0 18 8 -1.</_>
        <_>
          14 0 9 4 2.</_>
        <_>
          23 4 9 4 2.</_></rects>
      <tilted>0</tilted></_>
    <_>
      <rects>
        <_>
          14 16 4 8 -1.</_>
        <_>
          14 20 4 4 2.</_></rects>
      <tilted>0</tilted></_>
    <_>
      <rects>
        <_>
          14 22 12 1 -1.</_>
        <_>
          18 22 4 1 3.</_></rects>
      <tilted>0</tilted></_>
    <_>
      <rects>
        <_>
          15 4 9 20 -1.</_>
        <_>
          18 4 3 20 3.</_></rects>
      <tilted>0</tilted></_>
    <_>
      <rects>
        <_>
          15 13 7 6 -1.</_>
        <_>
          15 15 7 2 3.</_></rects>
      <tilted>0</tilted></_>
    <_>
      <rects>
        <_>
          15 18 16 6 -1.</_>
        <_>
          15 18 8 3 2.</_>
        <_>
          23 21 8 3 2.</_></rects>
      <tilted>0</tilted></_>
    <_>
      <rects>
        <_>
          16 21 14 2 -1.</_>
        <_>
          16 22 14 1 2.</_></rects>
      <tilted>0</tilted></_>
    <_>
      <rects>
        <_>
          17 0 8 6 -1.</_>
        <_>
          17 2 8 2 3.</_></rects>
      <tilted>0</tilted></_>
    <_>
      <rects>
        <_>
          17 11 14 2 -1.</_>
        <_>
          24 11 7 2 2.</_></rects>
      <tilted>0</tilted></_>
    <_>
      <rects>
        <_>
          18 18 12 6 -1.</_>
        <_>
          18 18 6 3 2.</_>
        <_>
          24 21 6 3 2.</_></rects>
      <tilted>0</tilted></_>
    <_>
      <rects>
        <_>
          20 0 12 2 -1.</_>
        <_>
          20 0 6 1 2.</_>
        <_>
          26 1 6 1 2.</_></rects>
      <tilted>0</tilted></_>
    <_>
      <rects>
        <_>
          20 11 12 12 -1.</_>
        <_>
          20 15 12 4 3.</_></rects>
      <tilted>0</tilted></_>
    <_>
      <rects>
        <_>
          22 3 8 14 -1.</_>
        <_>
          22 3 4 7 2.</_>
        <_>
          26 10 4 7 2.</_></rects>
      <tilted>0</tilted></_>
    <_>
      <rects>
        <_>
          23 19 9 4 -1.</_>
        <_>
          23 21 9 2 2.</_></rects>
      <tilted>0</tilted></_>
    <_>
      <rects>
        <_>
          26 21 6 2 -1.</_>
        <_>
          28 21 2 2 3.</_></rects>
      <tilted>0</tilted></_>
    <_>
      <rects>
        <_>
          27 10 3 14 -1.</_>
        <_>
          27 17 3 7 2.</_></rects>
      <tilted>0</tilted></_>
    <_>
      <rects>
        <_>
          28 21 4 3 -1.</_>
        <_>
          30 21 2 3 2.</_></rects>
      <tilted>0</tilted></_>
    <_>
      <rects>
        <_>
          29 11 2 3 -1.</_>
        <_>
          30 11 1 3 2.</_></rects>
      <tilted>0</tilted></_>
    <_>
      <rects>
        <_>
          29 12 2 1 -1.</_>
        <_>
          30 12 1 1 2.</_></rects>
      <tilted>0</tilted></_>
    <_>
      <rects>
        <_>
          29 14 2 1 -1.</_>
        <_>
          30 14 1 1 2.</_></rects>
      <tilted>0</tilted></_>
    <_>
      <rects>
        <_>
          30 1 2 22 -1.</_>
        <_>
          31 1 1 22 2.</_></rects>
      <tilted>0</tilted></_>
    <_>
      <rects>
        <_>
          30 6 2 7 -1.</_>
        <_>
          31 6 1 7 2.</_></rects>
      <tilted>0</tilted></_>
    <_>
      <rects>
        <_>
          30 16 2 8 -1.</_>
        <_>
          30 16 1 4 2.</_>
        <_>
          31 20 1 4 2.</_></rects>
      <tilted>0</tilted></_></features></cascade>
</opencv_storage>
